digraph Tree {
node [shape=box, style="filled, rounded", color="black", fontname=helvetica] ;
edge [fontname=helvetica] ;
0 [label="petal width (cm) <= 0.8\ngini = 0.66\nsamples = 95\nvalue = [51, 44, 55]\nclass = virginica", fillcolor="#faf7fe"] ;
1 [label="gini = 0.0\nsamples = 31\nvalue = [51, 0, 0]\nclass = setosa", fillcolor="#e58139"] ;
0 -> 1 [labeldistance=2.5, labelangle=45, headlabel="True"] ;
2 [label="petal width (cm) <= 1.65\ngini = 0.49\nsamples = 64\nvalue = [0, 44, 55]\nclass = virginica", fillcolor="#e6d7fa"] ;
0 -> 2 [labeldistance=2.5, labelangle=-45, headlabel="False"] ;
3 [label="sepal width (cm) <= 2.25\ngini = 0.15\nsamples = 30\nvalue = [0, 44, 4]\nclass = versicolor", fillcolor="#4be78c"] ;
2 -> 3 ;
4 [label="petal length (cm) <= 4.25\ngini = 0.44\nsamples = 2\nvalue = [0, 1, 2]\nclass = virginica", fillcolor="#c09cf2"] ;
3 -> 4 ;
5 [label="gini = 0.0\nsamples = 1\nvalue = [0, 1, 0]\nclass = versicolor", fillcolor="#39e581"] ;
4 -> 5 ;
6 [label="gini = 0.0\nsamples = 1\nvalue = [0, 0, 2]\nclass = virginica", fillcolor="#8139e5"] ;
4 -> 6 ;
7 [label="sepal length (cm) <= 6.95\ngini = 0.08\nsamples = 28\nvalue = [0, 43, 2]\nclass = versicolor", fillcolor="#42e687"] ;
3 -> 7 ;
8 [label="petal length (cm) <= 4.9\ngini = 0.04\nsamples = 27\nvalue = [0, 43, 1]\nclass = versicolor", fillcolor="#3ee684"] ;
7 -> 8 ;
9 [label="gini = 0.0\nsamples = 26\nvalue = [0, 43, 0]\nclass = versicolor", fillcolor="#39e581"] ;
8 -> 9 ;
10 [label="gini = 0.0\nsamples = 1\nvalue = [0, 0, 1]\nclass = virginica", fillcolor="#8139e5"] ;
8 -> 10 ;
11 [label="gini = 0.0\nsamples = 1\nvalue = [0, 0, 1]\nclass = virginica", fillcolor="#8139e5"] ;
7 -> 11 ;
12 [label="gini = 0.0\nsamples = 34\nvalue = [0, 0, 51]\nclass = virginica", fillcolor="#8139e5"] ;
2 -> 12 ;
}